{"topic":0,"singular_value":13650.26994758964,"terms":["align","right","style","text","color","center","width","background","left","blue","red","green","colspan","none","rowspan","px","border","scope","season","silver"],"weights":[-0.7379534433806266,-0.49170621117830526,-0.3046080174103052,-0.3020611044925741,-0.10784022803794094,-0.04840869939730186,-0.04339617710878067,-0.04327038101766785,-0.032847496693486536,-0.030641673511271214,-0.02432547480676766,-0.024218180487524953,-0.018623896658650572,-0.016722644792205563,-0.016258972735211416,-0.01544847390122934,-0.014428989257792065,-0.014395062566889771,-0.011529400828068359,-0.010465184604086776]}
{"topic":1,"singular_value":8749.389564652074,"terms":["ndash","died","born","politician","player","american","english","actor","singer","actress","author","german","songwriter","french","battle","australian","canadian","war","academic","composer"],"weights":[-0.9271746921113937,-0.15966839717784592,-0.14006180392075335,-0.09040712676317544,-0.06731661204636125,-0.0631919227317879,-0.05587052437740957,-0.05494261282282876,-0.05346394345719788,-0.04628557601978782,-0.04300264049780196,-0.04240866719481055,-0.04222992403499273,-0.04161246014620551,-0.04046785269661597,-0.03658520950831198,-0.03530654702210674,-0.03202916514158324,-0.03111934959261029,-0.031075198481571246]}
{"topic":2,"singular_value":6418.832166806703,"terms":["battle","ndash","rowspan","right","war","style","background","align","center","victory","new","season","soviet","nbsp","british","city","forces","army","world","defeats"],"weights":[0.20645854141745912,-0.20137321804803832,0.19072501694516605,-0.1438726689113861,0.12388058933555508,0.12333283353545926,0.09826033940188794,-0.09546097294094336,0.08489491310511903,0.0750181890934001,0.07365488465542773,0.07277948923168645,0.07271011393874212,0.0708699857753177,0.06951654074275446,0.06897411671830621,0.06784373101894936,0.06773211527383796,0.06731851747008917,0.06713577017378872]}
{"topic":3,"singular_value":5046.033183612883,"terms":["style","text","battle","right","rowspan","align","background","defeats","color","victory","war","none","defeat","ottoman","siege","forces","silver","magic","army","center"],"weights":[-0.49394015571216837,-0.41435692658013074,0.370227855103306,0.2644670125698702,0.25538022913735803,0.2383673125109947,-0.19474473923893748,0.13695039679935223,-0.11544554991582762,0.11350779727633338,0.11116172586026259,-0.10862103057141292,0.09828256443451147,0.08318172161600912,0.0755628498572197,0.07555039971364425,-0.07508006167898,-0.07325084094976769,0.0595131397391567,-0.05748183780935845]}
{"topic":4,"singular_value":4788.113411776122,"terms":["battle","rowspan","style","text","defeats","align","right","victory","defeat","ottoman","background","siege","war","none","forces","color","capture","operation","wars","new"],"weights":[0.4567757156832984,0.3809240364542979,0.33785415512217,0.3142515530875247,0.17763806487375258,-0.16015711473135297,-0.1504376049881332,0.14180495621696115,0.12082850859670272,0.10051867440246025,0.1003452903750772,0.09418659550864678,0.08602887385588788,0.07334623188482742,0.06815081941072959,0.06812570960285932,0.060744399950513533,0.052273691130632585,0.04938372260495483,-0.04344332324359904]}
{"topic":5,"singular_value":3626.9944382680906,"terms":["text","center","season","align","right","team","background","rowspan","india","game","games","relations","league","club","players","scope","football","colspan","coach","soviet"],"weights":[0.3040473040952286,-0.3029907099076991,-0.26737313836665033,-0.24853744053627605,0.2287075288920431,-0.18056840739345023,-0.18013346495055066,-0.1641437389742239,0.15275408214933597,-0.14539907171983177,-0.14179351563340017,0.10477551550378077,-0.1042490267180502,-0.10267247358564399,-0.08842517862035937,-0.0877962793375653,-0.08298790718205837,-0.08224062342185447,-0.08037724861093509,0.07684546685174881]}
{"topic":6,"singular_value":3316.8862361182187,"terms":["background","text","color","magic","silver","right","border","none","solid","champion","square","margin","season","auto","center","width","layout","ranked","ffffe","team"],"weights":[-0.4456777119073579,0.4448283434024728,-0.34912483211349776,-0.31245024925928205,-0.30278327307019853,-0.17905572457952595,-0.17750214615249543,-0.15825827580852933,-0.1305290565299426,0.11540729457869259,-0.11133995358437182,-0.10273532286232742,0.09342080756092441,-0.08630600783285661,0.08502577284766627,-0.07172574027143719,-0.06929586334230932,0.0614027289958243,-0.06015729918017654,0.05893596584766156]}
{"topic":7,"singular_value":3299.8608761365367,"terms":["champion","ranked","championships","open","australian","world","women","french","mixed","olympic","australia","silver","us","color","india","background","film","center","magic","text"],"weights":[0.7036515906869028,0.36846185572546597,0.2869788344536916,0.2368367456166865,0.21638396959166997,0.19197901171973392,0.14788329201293293,0.14496145637133429,0.10041042921220168,0.07448972254722924,0.07403323734658615,0.061672424412933774,0.06160816288914867,0.055061696137478744,0.05369197420178508,0.051054282905688475,-0.043649658506401734,-0.043053668123454514,0.041496401480014156,-0.041173707785838065]}
{"topic":8,"singular_value":3128.2019130970716,"terms":["india","right","center","align","relations","film","color","diplomatic","none","windows","album","party","magic","films","countries","music","champion","iran","soviet","finland"],"weights":[-0.2879817739206781,0.28592617944835397,-0.2771205135600707,-0.2094603859040863,-0.19888516011449453,0.14901829819673953,0.1323732685663124,-0.11249620287527679,-0.11209555672026968,0.10908258923495194,0.10774217370246762,-0.10189111849260926,0.09665224226246202,0.0964676725195892,-0.09589685117137786,0.09448767950279348,0.09115923646866787,-0.08954996351737025,-0.08755814008445864,-0.08073609384219103]}
{"topic":9,"singular_value":2963.5806299650594,"terms":["none","width","background","border","left","color","jersey","ffffe","city","windows","county","right","align","park","school","india","solid","district","township","nh"],"weights":[-0.7425579706128214,-0.21886578447392976,0.2025371657470607,-0.1846363364367206,-0.1529230496923986,0.12259055729001622,0.12095367195431199,0.11420936251919711,0.11046502950542203,-0.10457319390389289,0.09271877595263675,0.09156429083206596,-0.08816261172767062,0.0627675876882215,0.06122281397256002,-0.054446834975206845,-0.0490568509175804,0.04811896990394253,0.04770602555569925,0.04707413335422451]}
{"topic":10,"singular_value":2923.5442332678203,"terms":["season","india","none","team","game","relations","games","right","center","align","color","diplomatic","magic","players","league","city","county","nuclear","jersey","countries"],"weights":[0.30839639819685855,0.29932193391645096,-0.2355972574952654,0.20755090757844952,0.20641630970487354,0.1907917418313906,0.1754282792949444,0.17220600992958832,-0.1718361103533071,-0.12918757386424984,0.11607687795785276,0.10830784796207797,0.10722468229296186,0.10678086324950906,0.10557458232725042,-0.10289640544251359,-0.09772784369341728,0.096328805578644,-0.09296750899703224,0.09022086676547116]}
{"topic":11,"singular_value":2712.0061820208803,"terms":["film","india","none","films","center","right","season","rowspan","album","team","relations","background","game","align","award","games","music","windows","best","band"],"weights":[-0.27855427564139923,-0.24892788514192143,0.2032548581965901,-0.1934229246697104,-0.19267141757599698,0.18231528400620994,0.17215531045391358,-0.1638196157634496,-0.1564799162455314,0.14890366165525815,-0.13815020817657572,-0.13708571848583367,0.12979342171291453,-0.11859149162675464,-0.11449976534045544,0.11357918962641034,-0.11224500881099811,0.10666058229603247,-0.1009880631556684,-0.0983571040969159]}
{"topic":12,"singular_value":2692.085674215626,"terms":["windows","none","center","right","nbsp","film","season","align","nuclear","background","software","jersey","version","rowspan","bit","data","media","india","border","system"],"weights":[-0.6483133253503207,0.23989779981238749,-0.17948180020207502,0.14811267553315804,-0.12036118856914585,0.10224279452114371,0.09929069978361729,-0.09688530860096439,-0.09432785817291957,-0.09324453539332689,-0.08945267736996927,0.08409103685996103,-0.07648516779875764,-0.07630647510353217,-0.0727217955979213,-0.07183519302802624,-0.06765169913346458,-0.062116488363332306,0.059653180970513864,-0.05918993167247071]}
{"topic":13,"singular_value":2623.8831542192056,"terms":["windows","jersey","india","none","right","center","film","city","align","album","relations","ffffe","county","films","park","bc","band","school","music","released"],"weights":[0.279838425159038,0.2455249836713557,0.23391092989036372,0.20077150382712405,0.19554867051849273,-0.18876302791256444,0.1404637521620521,0.14033234715965417,-0.1249978555403301,0.11202759560871797,0.10792323223170994,0.1041895249210537,0.09353201622657781,0.09081516529308845,0.08756365222259879,-0.08752586752707395,0.08126941030168888,0.07888354384898315,0.0748152215826072,0.07288451741947191]}
{"topic":14,"singular_value":2544.024005056083,"terms":["india","windows","soviet","party","relations","german","defeats","rowspan","germany","roosevelt","film","aircraft","indian","jpg","file","election","bc","ottoman","military","siege"],"weights":[-0.3775909321642525,0.22225537254206126,0.19089654046000396,0.18890475369310056,-0.11646073467797036,0.11599050339784382,-0.10856639504078716,-0.10573200085294954,0.10251972534024464,0.09886389392901337,0.09743003524631197,0.09350727130729426,-0.09235650771361968,-0.09158525660242892,-0.09037683010176428,0.08966051380749737,-0.08831767678072122,-0.08674445407954583,0.08605328617574302,-0.0855186409765301]}
{"topic":15,"singular_value":2493.1052360602935,"terms":["windows","nuclear","aircraft","nbsp","air","king","energy","korea","church","speed","de","gas","engine","party","fuel","weapons","file","space","japanese","missile"],"weights":[0.49563934760420514,-0.2505165200341211,-0.14841767515176543,-0.1450576853829341,-0.11872159982084149,0.09587597913603994,-0.09577712044871366,-0.08506592619983977,0.08366880860965326,-0.08282786960999586,0.07945123709467587,-0.07901956504941811,-0.07689507863662638,0.07629757773981524,-0.07552090335469377,-0.06926274278897991,0.0663038276248187,-0.06449844004702579,-0.06407185696888154,-0.06370558944338701]}
{"topic":16,"singular_value":2318.206858652891,"terms":["party","rowspan","scope","aircraft","file","row","jpg","center","right","election","soviet","roosevelt","air","german","insurance","align","art","album","japanese","value"],"weights":[0.21939967387462356,0.2190860544436977,0.19352773078217267,-0.14920754972775938,-0.14447109303743888,0.14002283813384878,-0.13900679684499082,-0.13057081990355318,0.12636112832140872,0.11804389627953321,-0.1176905866274412,0.11703774218215993,-0.1124370479113623,-0.11068183100648543,0.10179250246753882,-0.09076960799121225,-0.0885339096762301,-0.08803026897662682,-0.08452423748615523,0.08324587870808932]}
{"topic":17,"singular_value":2231.1721138311104,"terms":["background","album","bar","color","magic","jersey","band","film","style","center","silver","films","music","text","ffffe","jazz","tour","right","scope","shift"],"weights":[0.2904563142019392,-0.2676066651813918,-0.2542535218274506,-0.23717864647564316,-0.23697012476920543,-0.23531220107904652,-0.21787483920317968,0.18802859822000634,0.18217473927425853,-0.1777098745309229,-0.1612774576905221,0.15378844415398804,-0.13449933914803966,-0.1330022942021868,0.13231316086822756,-0.12031558350287652,-0.1073915846529952,0.1007120736972684,0.07708605240523508,-0.07656670505133746]}
{"topic":18,"singular_value":2220.82632959819,"terms":["finland","jersey","scope","magic","india","album","row","band","silver","nuclear","music","center","background","film","soviet","jazz","roosevelt","films","germany","german"],"weights":[0.3136237391272956,-0.2670801933296552,0.2670638988375221,-0.22851739694482737,-0.21181341228278908,0.20343108732029555,0.19339133838590195,0.15716251520276756,-0.14347779249336046,-0.14023709872901832,0.1280266812779623,-0.12425437669021096,0.12287028898572273,-0.11888468699516642,0.10933815714272216,0.10002604993833537,-0.09417375034321512,-0.08779530467135066,0.084978466734904,0.08146364945774423]}
{"topic":19,"singular_value":2159.667759790242,"terms":["finland","jersey","album","film","india","band","films","background","nuclear","magic","jazz","music","soviet","relations","tour","city","silver","iran","russian","russia"],"weights":[-0.41439425760662535,-0.2588134768387862,0.2420725689717171,-0.2189822476311304,0.19823724976344487,0.19541887172347797,-0.18462094840805932,0.14904510885854827,0.14390102429805193,-0.12883160394467888,0.12812872063812777,0.12107366969955223,-0.12036412524382371,-0.10147882587414851,0.09481435752202814,-0.08215846864938615,-0.08096613782228759,-0.08077345301044363,-0.0804041571224439,-0.08000599765946588]}
